//Numpy array shape [16, 64]
//Min -0.744946777821
//Max 0.663476824760
//Number of zeros 0

#ifndef W2_H_
#define W2_H_

#ifndef __SYNTHESIS__
model_default_t w2[1024];
#else
model_default_t w2[1024] = {-0.1521097571, -0.3093024790, 0.0439228415, 0.0271791089, -0.0384166501, 0.3005695641, 0.1157450378, 0.4618412554, 0.1341375560, -0.2947326601, 0.1877683252, 0.1111035272, 0.0280158874, -0.1510210931, -0.0408747308, 0.1620447040, 0.3068012297, 0.1039657742, 0.4588297307, -0.4063178599, -0.2122886926, -0.3504505157, 0.1603822708, 0.1786677390, 0.0732004046, 0.0253630280, 0.1644090563, -0.3914743662, -0.4152474999, 0.1000968516, -0.2888112068, -0.2038484961, -0.1697417200, -0.3593153059, -0.2368360609, 0.1338832229, -0.0113131274, 0.2466485947, 0.3901839852, -0.3022956848, -0.3303579986, 0.1177110597, -0.2684016228, -0.0295983143, 0.3689603806, -0.2075146586, -0.4559083879, 0.0521488190, 0.0136249941, 0.1500947177, 0.0978537649, -0.3517853916, 0.3460029066, -0.1994953752, 0.1243948415, -0.1859299839, -0.3712241054, -0.1053754240, -0.3606602550, -0.4335344136, 0.3943587244, 0.3537530601, -0.0055752634, 0.0001640529, 0.0927871987, 0.2515898943, 0.3524413109, -0.0505516157, -0.2724779248, 0.1907685548, 0.0098451851, 0.1161156818, 0.3114039004, 0.2595610023, -0.3469748199, -0.2214035690, -0.2139208615, -0.2745704651, 0.3882393837, -0.3281320632, 0.1361789852, 0.3420454264, 0.2694673538, 0.2614644170, 0.1047149152, -0.3511764109, 0.2304182053, -0.2282695621, 0.1327102333, -0.4015674889, 0.1999017447, 0.0155852735, -0.3003673553, 0.0585843325, 0.3398954868, 0.1555823386, 0.1695032120, -0.0090617752, 0.1394574195, -0.3316899538, 0.1594786495, 0.1555616856, -0.3614452481, 0.4269301593, -0.0273525510, -0.0002869121, -0.2716841400, 0.2715838253, 0.2635714710, -0.0010251028, -0.3429163396, -0.0015101023, -0.1754029393, 0.0120017957, 0.0488115586, -0.2712648511, 0.4425777793, -0.0853038579, 0.0118703339, 0.2056207508, -0.2809655964, -0.0764887780, -0.1457622349, 0.2353148758, -0.1725504845, 0.3748314977, 0.2459105104, 0.1716565192, 0.1790984273, 0.1593928933, -0.1182135120, 0.5358616114, 0.1605385840, -0.2381972969, 0.0009844053, -0.3584227264, -0.1666437835, -0.0030098828, -0.1195076555, 0.1518427283, 0.0427036807, 0.0922342315, 0.5643087029, -0.4283106029, -0.0057349280, -0.1310207993, -0.1998477131, -0.3557474911, -0.2151590139, 0.0127735604, -0.2646523416, 0.0045792996, -0.1106615961, -0.3047048748, -0.0821000785, 0.4586459100, -0.6331560612, -0.1964067668, 0.0718571246, 0.1959911734, -0.1507215649, -0.3351972103, -0.4002400935, -0.0909785330, 0.0507972986, 0.4595993459, 0.1387131363, -0.1167043000, 0.3723296821, 0.2122282237, 0.1699387729, 0.0826692060, -0.3282850683, -0.0713441968, -0.3315543234, 0.3391350806, 0.1410405785, 0.4614648521, 0.1774920225, 0.3779210448, -0.0079616522, 0.0641960502, -0.4801297486, 0.0442572162, 0.0814112425, 0.2983239293, 0.1084607318, 0.2732758522, 0.0916095674, -0.3083184659, 0.5170748234, 0.1578867435, -0.1842954457, 0.2034407854, 0.1103721485, -0.0825030804, 0.4180466533, -0.1058009118, -0.6270040274, -0.2921521962, -0.1385423243, -0.1157969609, -0.0051980289, -0.4771190584, -0.3764202893, 0.2413987517, -0.2755839527, -0.0126087237, 0.1457008272, -0.5982493758, -0.3665823042, -0.1298285574, -0.4894977510, -0.2247279882, 0.0050375527, -0.3128204048, 0.5672216415, -0.0806672946, 0.0135208583, 0.5357249379, -0.1825371385, 0.4893586040, -0.4271024466, -0.0076199616, 0.3825556338, -0.5250287652, 0.3036344349, -0.5219217539, 0.1885808557, 0.3636994362, 0.2325174361, -0.2158784121, 0.2319578528, 0.3336011767, -0.0391146168, 0.1324006319, -0.6048100591, 0.3393020332, -0.1800883114, 0.1781630814, 0.1137387305, 0.4605679512, 0.4102987051, -0.1569405645, 0.0871615782, -0.5094840527, 0.0469699986, 0.1734883338, 0.0016357886, 0.6634768248, -0.4647898674, 0.4414837658, 0.2983918190, 0.1510806531, 0.1782600582, -0.0333572850, 0.3905479610, 0.3095691204, 0.3904916048, 0.4890167117, 0.3070175648, -0.3070320487, -0.5108075142, -0.0648932755, -0.0561570376, 0.4053749740, -0.2144615799, 0.3334333003, -0.2378492057, -0.0421665125, 0.3574863672, -0.1607524157, -0.1116832867, -0.2849428952, -0.3797524869, 0.1141471788, 0.0323767886, 0.2102700770, 0.1900462359, 0.5391737819, -0.0120161567, -0.1952042580, -0.4637636840, -0.2028219849, -0.4880991876, -0.3397473991, -0.1954451799, -0.2336511165, 0.0484914295, -0.3292009532, -0.0428141616, -0.3168300092, 0.0186135340, 0.2030179203, 0.2536339164, 0.2068750411, -0.0108676562, -0.2170413733, 0.4699680209, 0.1780881882, -0.0586098433, 0.4280676246, -0.4105869830, -0.3766384721, -0.2274371684, 0.1020576581, 0.2892141342, 0.1023264229, 0.0578277409, -0.0054108859, -0.4024437368, 0.2831512690, -0.1387591958, 0.0756984949, -0.4470641017, 0.2180126011, 0.4517408609, -0.1090986952, 0.2660914063, 0.4697636068, -0.3155906200, -0.4032492638, 0.0847245529, 0.4157923758, 0.0807118714, -0.3563207686, -0.4021493196, 0.1004281119, -0.4453354776, -0.0973722860, -0.3989006281, -0.2791820467, -0.4282754064, 0.0718315691, 0.2733508646, 0.1971213371, 0.1569799185, -0.0888750032, 0.1998078376, 0.1624773741, -0.2336775512, 0.1393262744, -0.1490315646, 0.3265649378, 0.2064730525, -0.4097068012, -0.3188252151, 0.2612614334, -0.0433804095, 0.1348961592, -0.1194104254, -0.0363047868, -0.0033644894, -0.2169652581, -0.3520500958, -0.0860011950, 0.0049939281, 0.4075053632, -0.1303737462, 0.3327450752, 0.1174992919, -0.0739436895, 0.3027049899, 0.3364156485, -0.2258608639, 0.2387243211, 0.3520587385, -0.2328059822, -0.2888249755, 0.2363838404, 0.2606400549, 0.4026088417, 0.0136971949, -0.3546061814, -0.2369464487, -0.3294034898, 0.3069386780, -0.1896776110, -0.5129942894, 0.4291460216, 0.2899540663, -0.2510789931, 0.1269986480, -0.2867835760, 0.3397768438, -0.1187122166, -0.4199895561, -0.1480391324, 0.3257874846, 0.2197190523, -0.3053345978, 0.1693990678, -0.1489322633, -0.3528265059, -0.0001211149, 0.1787149906, -0.0326573662, -0.0002557167, 0.2182897925, -0.1443410963, 0.2396772057, -0.0145700723, 0.2991866767, 0.3980697393, -0.2374151498, -0.3824076355, -0.2074265927, 0.2498291582, 0.1303616166, 0.2557607889, -0.4113190770, -0.3372008502, -0.3085854053, -0.0627265275, -0.0530103147, 0.3893074393, -0.0630402043, -0.3021169007, 0.1300022304, -0.1193723381, 0.3153522611, 0.1675977260, -0.1442073435, -0.0433484316, -0.0743789449, 0.0270021278, -0.3086425960, -0.1584684998, -0.1609030962, -0.1708963066, 0.2874436080, 0.2713203132, -0.1681232303, 0.0146017177, 0.0958071873, -0.2043153495, -0.3024623394, 0.2666158974, -0.0396301970, -0.4170362949, -0.1094778255, -0.1256630421, 0.0102216154, 0.3222845793, 0.0547086000, 0.0802514181, -0.2488916069, 0.1633373201, -0.2529152632, 0.2330637127, 0.1024715900, -0.0080272993, -0.0604932345, -0.4135018587, 0.4272911549, 0.1556598395, -0.0682539716, -0.2353482693, -0.0120998425, -0.2325228453, -0.1974741966, 0.2703982592, -0.3165231645, 0.3630276620, -0.0851613656, 0.0006964367, -0.3100986481, 0.2985678017, -0.0248577558, -0.2949180603, 0.4157001972, -0.2350181490, 0.3052667975, -0.3800369203, -0.4556694031, 0.2646397352, 0.0953336805, 0.1430162340, 0.3738852441, 0.0527587384, 0.0989528894, -0.0968553647, -0.0111655556, 0.2775384486, -0.0153734377, -0.3694537282, -0.0989123806, -0.0737556443, 0.3669794798, -0.1776401848, 0.3253519237, -0.3614678383, -0.3416191638, -0.1177179366, 0.2557010353, 0.1542444676, -0.3974738717, -0.1939462274, 0.2493293732, -0.3093251586, -0.3169076741, 0.1462644935, -0.0335640348, 0.2571479380, 0.1661506742, -0.2684454024, -0.1340148002, -0.0142111359, -0.0405331105, -0.0694683567, 0.0226679314, -0.3636446297, 0.3369396031, -0.0366995037, -0.4910626113, -0.2689900100, 0.2224380523, -0.0814506412, 0.4711543322, 0.2410890609, -0.2081500441, 0.0718286037, -0.3382195830, 0.0124751553, 0.3229095638, 0.3873643577, 0.1276850104, 0.0973191038, -0.0323246121, -0.2719022632, -0.0231524650, -0.3388215005, 0.0237099454, 0.3693569005, 0.1768950522, -0.3376384676, -0.3016593754, -0.0844269171, 0.2533417046, -0.2772827148, -0.0241587609, 0.2191523015, 0.2680290043, -0.2386718988, -0.2729205489, 0.0927138925, 0.1536282152, -0.0067202435, 0.0409368128, -0.1499305218, 0.0004018354, -0.3736520708, -0.3107748926, 0.3709851503, -0.3647845089, 0.1165047213, 0.2084678859, -0.0345075205, 0.0566997752, 0.2066905051, -0.2863631845, -0.0020694481, 0.2745128870, -0.1299283803, -0.3764353395, -0.1689622402, 0.1637824923, 0.2563013434, -0.0904672667, 0.3279473186, -0.2566896081, 0.3241842389, -0.3496133387, -0.2665235400, -0.0135537246, -0.3566977680, 0.2318700403, 0.1796565801, -0.2779044509, 0.2329571843, -0.0042331712, 0.3845674396, -0.1477164775, 0.4043228328, -0.0594375581, -0.1650807410, -0.0254651252, -0.2687769234, 0.4362024367, -0.2507474422, -0.2464392483, -0.1201362461, -0.0129362782, 0.2134539485, 0.1236982420, 0.3294278085, 0.1131912246, 0.3352467120, -0.3654960096, 0.2067254782, -0.1959110349, -0.2863342464, 0.0002494838, -0.4135594368, 0.2271609902, -0.1652348042, -0.3328149021, -0.1929028332, -0.3784735501, -0.2764933705, -0.0003851242, -0.3149726689, 0.3724938035, 0.1402596831, 0.2290282845, 0.3233518302, 0.3229694366, -0.0084164506, 0.2706727087, 0.0161105804, 0.2249535769, -0.2686618567, 0.3719819784, 0.4315492511, 0.1120170951, 0.0314713083, 0.2366048545, -0.3999398351, -0.3569194973, 0.1064180061, -0.0799371675, 0.2105614543, -0.3807834387, 0.3659886122, -0.3093347251, -0.0223329347, -0.3243803084, 0.3577830493, -0.3438110352, 0.1380377263, -0.3445119262, -0.1990306228, 0.3555398881, -0.1436979324, -0.3083965480, 0.0594709814, 0.4542602003, -0.1384661049, -0.1741858125, -0.0555833355, 0.3075710237, -0.3041165769, 0.4336346686, -0.0474881530, -0.0847083852, -0.2801912427, 0.0000701173, 0.0653327331, 0.0715489611, 0.1760885119, 0.3734633625, -0.4078133404, -0.3896532655, 0.2774226964, -0.1140951440, 0.0002371283, -0.2519457340, -0.3467116356, -0.2637375891, 0.3355115354, -0.2583878934, -0.0643026978, 0.1564422399, -0.0799313635, 0.2546868026, -0.0930078179, 0.0994284153, -0.3688622415, 0.4664311409, -0.0097735580, -0.2716359198, -0.3387441039, -0.0168881770, -0.3622641563, -0.2924467921, 0.0165603496, -0.2516053915, 0.1062608510, 0.0524585955, -0.2405944169, 0.2870107591, 0.0133130020, 0.2105474025, 0.1536052227, 0.0814819485, 0.0690934137, -0.1896035373, 0.0502649061, -0.3150483370, 0.3466517031, -0.3785803616, 0.1265466660, -0.2995670140, 0.3082428575, -0.3228539824, 0.2424726337, 0.0944647640, -0.0836871713, 0.3077616692, -0.1112938002, -0.3131232560, -0.1642614603, 0.1429096013, -0.3594632149, 0.2314925790, -0.2693739533, 0.3316773772, 0.1909766048, -0.0739009455, -0.0668628663, 0.2838541567, -0.2261099964, 0.2194906026, 0.0009097357, -0.1240760759, 0.0014152291, -0.2005953193, -0.2813876867, -0.3896865845, 0.3860846162, -0.3770379722, -0.3450873494, -0.0093847578, -0.2849386930, 0.0112624345, 0.0602384210, -0.3433775008, -0.4914113879, -0.1726268679, 0.3966533840, -0.0972105265, -0.4215430617, -0.3398720026, -0.2536736131, 0.1382164508, -0.2199346572, -0.0931073800, -0.3410514593, -0.0945072323, 0.0642184988, 0.3062364757, -0.0077166394, -0.2861451805, 0.0617887154, -0.0116176214, -0.2644778490, -0.4127887785, 0.0299804062, -0.0790286586, -0.0131657179, 0.1818234921, -0.3569606543, -0.1605553925, 0.0992299616, 0.0065508024, 0.2331741303, 0.0114046885, 0.4371449053, 0.3522681594, -0.2307967395, 0.1744592488, 0.0702066123, 0.1711531281, 0.0622113235, -0.3116846681, 0.2537463903, -0.3512524366, -0.1806162745, 0.2472512126, -0.2432685196, 0.4490998387, 0.2846965790, -0.0721292496, -0.0206751116, 0.3027310371, -0.1830201894, 0.2436346412, -0.1467244923, -0.1136052385, 0.2250722200, -0.3534173369, -0.2190768570, -0.0957109034, -0.2652065754, -0.3531436026, -0.0004393143, -0.2365889996, -0.1654150784, -0.0239757095, 0.0744991228, -0.2960749567, -0.3131571710, 0.3393881023, 0.1813246608, -0.1634176075, 0.1402828246, -0.1111375466, 0.0004912411, -0.3185633719, -0.0331841521, 0.2616103888, -0.0968689546, 0.2129655033, -0.2052137554, 0.0633071437, 0.3000466824, -0.4023615420, 0.0478650257, 0.0963061526, -0.2834470868, -0.3771010637, -0.3018573523, 0.2792972326, 0.1341151148, -0.2156822085, -0.4335611761, 0.3227112591, 0.0002128331, -0.3057337403, -0.0552758351, 0.1145883352, -0.4141733944, -0.1242650598, 0.0997565910, -0.1855587363, -0.0570567511, 0.1511955261, 0.0935788676, -0.1001495123, -0.3634005487, -0.0439639129, 0.2407159358, 0.1514599323, 0.2393400967, -0.0062360982, 0.0003987121, -0.1463539600, -0.1659086794, 0.0060067279, -0.0049497252, -0.0942921713, 0.3807324469, -0.2748034894, 0.3182921410, 0.0016839970, 0.1613439769, 0.1399265975, -0.1409015059, 0.0414025001, 0.2230721563, 0.0013199431, -0.1336438060, 0.0884115919, 0.2073040605, 0.0594887510, -0.3650665581, 0.3130640388, -0.3369127810, -0.0506378599, 0.2010559440, 0.4488729239, 0.1044809446, -0.0263175312, -0.0552315302, -0.2288593650, -0.0051230774, 0.0388526618, -0.3138859868, -0.0877650082, -0.0034925190, 0.1211101711, 0.0031139487, -0.0650201142, 0.3540707231, 0.2453394234, 0.0667282343, -0.2730938196, 0.0016420833, -0.3809854686, 0.3520190418, 0.2560606003, 0.3634260297, -0.1380739659, -0.0007533417, -0.0148167685, 0.1902388632, 0.1656448990, 0.3729790151, 0.4161620736, -0.3104252517, -0.3020915687, -0.5269011259, -0.6674226522, -0.3118107617, -0.7211338878, 0.1762789488, -0.0593895465, 0.3703578413, 0.2031255066, 0.0187635105, 0.1190369055, -0.1304923147, 0.4519969523, 0.3690965176, 0.2269499451, 0.1351720095, -0.4500277042, -0.2091250271, -0.3159652650, 0.4074416161, 0.6494665146, -0.2738578320, 0.0286943242, 0.0150482804, -0.3365601301, 0.3003505766, -0.1151816472, -0.1550663263, -0.5292147994, -0.3636197150, 0.2221809924, -0.3257194459, -0.3078615069, 0.6237684488, -0.1948858351, -0.0972720161, -0.4728655219, 0.0181238353, 0.1702473760, 0.0000918113, -0.4317642748, -0.0685232058, 0.1406061053, -0.0651772544, 0.5785903335, 0.3683995605, 0.0557425059, 0.2120293230, -0.3081523180, -0.7449467778, -0.1326969415, -0.3591540456, 0.0893985331, 0.4923093915, -0.1198656037, -0.2326663285, -0.4076806605, -0.2051038742, -0.0571601763, 0.0125954831, -0.2496965826, -0.0076724510, 0.1126256585, -0.0909546092, -0.0984369665, 0.0545960814, 0.3912724853, -0.3837379515, -0.3785063028, -0.3655776680, -0.2178312093, -0.3610451519, 0.3197081983, 0.1684385985, -0.2508112490, -0.2323561162, -0.0507608913, 0.3400347829, 0.0177357811, 0.2813421488, -0.1636250913, 0.0320354067, 0.4776285589, 0.0739062205, 0.3328329921, -0.0434971265, 0.3347217143, 0.4731028080, 0.2231923342, 0.4476604760, -0.4050699174, 0.0005317248, 0.0117363185, 0.0044661323, -0.5294956565, -0.2275039852, 0.1757889837, 0.4424801767, 0.4822784960, 0.0416067354, 0.4032211006, -0.0179505907, -0.0950814262, 0.2321667075, 0.0070549613, 0.3011853695, 0.3652073145, -0.2804893553, -0.1960705221, -0.2235528082, -0.2837022543, 0.2759318650, 0.1235419214, -0.3760501146, 0.3936728835, 0.0424965769, -0.2618526518, 0.0973714814, 0.2778169811, 0.0903237015, 0.0061408398, -0.3376300633, -0.0256683398, 0.0596116222};
#endif

#endif
